25 80
L 0.01177469 0.014495788 0.033305082 0.029874751 0.013256015 0.0046435106 0.020524764 0.0070331595 0.0010130956 -0.011871096 0.0071238764 -0.01039065 -0.0025133996 0.008035885 -0.028833829 0.005462908 -0.00238985 0.04410892 0.039176095 -0.04282388 0.070483886 -0.007186326 -0.064367376 -0.040815007 0.027339647 -0.005698166 0.04379002 0.0010552753 0.01599742 0.003123162 0.007192805 -0.03706319 -0.022058614 0.020983405 0.04260048 -0.057469774 0.021822393 0.046588577 0.022125011 0.016463341 0.013639608 -0.024828177 0.021016905 0.010344073 -0.0047142147 0.009803863 0.018689413 0.030945009 -0.011077454 0.010138289 -0.007474146 0.00024371932 -0.08132356 -0.021396473 -0.058284465 -0.021533946 -0.048900045 0.00087093486 0.027058288 0.03784499 0.018616011 -0.0059166146 0.015299293 0.011286744 -0.020090526 0.048999198 0.045160584 0.16936135 0.0062133675 0.06103256 0.17420705 -0.014150758 -0.060978755 0.10191064 -0.0804479 -0.071650796 0.16026947 -0.045815036 -0.16172947 -0.65334064
S 0.028871778 -0.046346135 -0.13915676 0.026539009 -0.08723622 -0.0011796984 -0.03751973 -0.043472238 0.036731884 -0.0307603 -0.004186525 -0.030028418 0.046779905 -0.0014965668 0.048544593 0.039647806 0.041149106 -0.08491695 -0.06284956 0.041763823 -0.07756746 -0.011164158 0.10503511 0.030224659 -0.025543544 0.016870487 -0.043295566 -0.015573713 -0.005865549 -0.008203181 -0.021901002 0.027067354 -0.01231709 0.094899625 -0.08876787 -0.010072314 0.05311478 0.012914745 5.1908214e-06 -0.01914632 -0.0003177162 -0.0058365134 0.022912303 0.0034920354 0.010884656 -0.01043674 0.00036064236 -0.021588396 -0.04701933 0.0027544417 -0.019885682 0.050858792 -0.023608645 -0.008454149 -0.031083265 -0.017716883 -0.029261217 -0.019367844 0.001709339 0.01803086 0.021783018 -0.008245189 -0.009994511 0.0043148096 -0.020942098 -0.08163071 0.046810903 0.07699446 0.052071974 -0.05009061 0.15601069 -0.1591834 -0.022187358 0.060591593 -0.16527112 -0.06469646 0.07442318 -0.175347 -0.31770036 -0.5832257
A -0.06912972 0.13033852 0.116458915 0.054918762 0.03465955 -0.11288301 -0.111113414 0.038324572 0.075095356 -0.07615021 0.03392069 -0.013607305 0.042300828 0.018841125 -0.040894777 0.070838764 0.018359633 -0.031375997 0.03402678 0.019643735 0.06857674 -0.00678088 -0.041206155 -0.036559176 0.036756586 0.0071288724 0.005116917 -0.032561883 -0.0029781093 -0.045092117 0.00018431482 -0.037484 -0.033666145 0.05112488 0.08368455 -0.097460456 0.017786063 0.03311825 0.009798055 -0.007585367 0.022990244 -0.007267047 -0.038370207 0.0096847145 0.0056060036 -0.0011163861 -0.0008429717 0.07522909 -0.06706452 -0.004930663 -0.0042086667 0.0011608737 -0.09386218 -0.036014322 -0.07419045 -0.033216663 0.057349868 0.048059907 0.060884584 0.010999689 0.031221753 -0.05441156 0.018966336 0.0060988576 -0.06327303 0.008768718 0.09581873 0.1297486 0.113962665 -0.0008809352 0.053792085 -0.041366857 -0.122122705 0.112042084 -0.20550902 0.027003925 0.12800229 -0.11150166 -0.15018179 -0.5918095
E 0.010031072 0.03738693 0.199267 0.20600557 -0.050677225 0.0128700845 0.13080046 -0.034952536 -0.049858145 0.023464717 -0.05321991 -0.09720232 -0.001590524 0.049576655 0.00026695844 0.00035211592 0.12072373 0.0017580977 0.10583826 -0.0591562 0.05401483 -0.002887311 -0.05550548 -0.043113243 0.029305508 -0.00026435396 0.0217674 -0.010108108 5.8831454e-05 -0.018813213 0.010142427 -0.031011371 0.012010574 -0.00810436 0.08595435 -0.03198594 -0.009754004 0.04126125 0.023957334 -0.036604688 0.01964408 -0.039120007 -0.123026 0.0131142065 -0.035197012 0.026487855 0.015749505 0.093519635 0.014461619 0.005456576 -0.13693918 0.08925957 -0.019584315 -0.04904864 -0.0036441868 0.013854112 -0.13032939 -0.083647974 -0.01824214 0.050583072 0.067422 -0.011606364 -0.040626463 0.012610542 -0.012464946 -0.008009864 0.07259262 0.13016905 0.14923476 -0.054954454 0.06607839 -0.0775887 -0.054947376 -0.003394859 -0.13681719 -0.047752023 0.16180685 -0.13240376 -0.24618022 -0.6226621
G -0.04668767 0.16135356 -0.045157447 0.118919134 0.012688387 -0.04902965 0.025572695 0.07207616 0.04978056 -0.042276338 -0.01262283 -0.0645492 0.06805089 0.05158878 -0.00754545 0.09894496 0.051305927 -0.09403883 0.0031336085 0.062025543 0.10752248 -0.01896458 -0.0015226975 -0.011072251 0.060881175 0.016818754 0.02922765 -0.050068334 0.0043055634 -0.05498243 -0.0022183286 -0.06913293 0.029805802 0.0008966427 0.011074129 -0.0620015 -0.008513738 -0.0094390595 -0.037741728 -0.001795723 -0.0051978994 -0.0005908198 0.07910267 -0.014824208 0.010776965 0.010735965 -0.0066586146 -0.065592624 0.030299189 0.008673257 0.0037107791 -0.054891445 -0.00750398 0.030195137 -0.018534256 -0.020932863 0.058382224 0.046808075 0.019963956 -0.013860871 -0.028968738 0.0001401721 0.02586078 -0.002938178 -0.072361715 -0.05009568 0.04711773 0.081800714 0.094444215 -0.012145894 0.00852029 -0.043368354 -0.120168574 0.016020348 -0.06770231 -0.068032816 -0.03633229 0.0045870203 -0.22250675 -0.6335316
V 0.05163533 0.0899778 0.018171316 0.15640308 0.0012883145 0.0013986214 -0.0049470044 -0.011395916 0.0063467575 -0.012920025 0.007406686 0.003633549 -0.013607788 0.013897109 -0.016843356 -0.015894962 0.051645473 -0.07487842 0.020799037 0.0009779263 0.15662684 -0.037031483 -0.010629082 -0.03738615 0.08554241 0.0056669787 0.05242815 -0.046439715 0.013928833 -0.06025147 0.0018299206 -0.09461365 0.04923192 -0.03545888 0.04760211 -0.063017644 0.04745933 0.032709148 0.011691984 0.010158556 0.023502538 -0.007393107 0.012306407 0.014853673 0.019089263 -0.003985219 -0.0054363906 0.058386996 0.019017912 -0.0019148195 -0.07626189 0.019009797 -0.04614132 -0.007919166 -0.051510558 -0.02662348 0.029897787 0.03135267 0.039597098 0.008151806 0.009499497 -0.020144397 0.017881539 0.0059505673 0.009689157 0.011734117 0.06984787 0.157791 0.02811629 0.004416701 0.07370851 -0.04109312 -0.07575965 0.055445857 -0.04968579 -0.023946676 0.08716403 -0.028704287 -0.16780388 -0.639907
K -0.06997356 0.011556952 0.04290377 0.21452624 -0.086676 -0.057734784 0.11200529 0.022345737 0.019096598 0.024629548 -0.05357106 -0.0006871383 -0.06641385 0.061441053 0.11998671 -0.14041315 0.086221576 0.05268867 0.08578449 -0.06971071 0.09204819 -0.030815661 -0.038482048 -0.06707946 0.046805654 -0.030760158 0.03242422 0.0037531022 0.012154928 -0.023903662 0.0056827785 -0.044171948 0.029173864 -0.0743796 0.027501358 0.050261922 0.082763955 0.05063642 0.029075569 -0.04583099 0.017105268 0.0070207864 -0.02244417 0.02014888 0.02766332 -0.03309178 -0.008072972 0.059093438 0.054482702 0.012701006 -0.034961075 0.002686527 -0.10452648 -0.029744612 -0.050449084 -0.00945942 -0.19520555 -0.09418223 -0.0011698111 0.08930677 0.08339596 -0.00469314 -0.027948998 0.021634264 -0.03161968 -0.050887708 0.084470265 0.1262028 0.008670294 -0.059676003 0.090141706 -0.0968752 -0.07261464 0.075577624 -0.10529504 -0.068284385 0.06936114 -0.2059155 -0.19807285 -0.6476937
P 0.0067202924 -0.0062843817 -0.036685124 0.055358835 0.030377463 -0.11812137 -0.06905433 0.09861717 0.08998355 -0.03924787 0.038328286 0.092173666 -0.020947164 0.002777391 0.025449142 -0.047624078 0.067372285 -0.05426429 0.02717825 -0.017387003 -0.17405836 0.0010291847 0.079050034 -0.006683116 -0.069297835 -0.05445131 -0.08125552 0.06945203 -0.0019805087 0.039974634 -0.014003554 0.09893912 0.04991796 -0.114538334 0.045537997 0.079829656 0.032872118 0.004701832 0.0006164645 -0.009910426 0.02233286 -0.013300387 -0.030399181 0.0034008892 0.0045504807 0.0059324186 -0.0020734752 0.053418107 0.028661361 -0.0055618766 -0.050586753 0.051817745 0.07991321 0.022838606 0.009832882 -0.01256772 0.033792414 -0.003520464 -0.005182479 -0.015605318 0.0022873746 -0.005517778 -0.01342939 -0.004615195 -0.052155524 -0.02535746 0.06153093 0.15347311 0.021709932 -0.0460982 -0.011561558 -0.05811596 -0.0630111 -0.02429963 -0.11753242 0.059745505 -0.013396332 -0.015361167 -0.3302938 -0.61668146
T 0.07344063 -0.022237748 -0.04914667 0.07423195 -0.05514205 0.036833957 -0.061101403 -0.085292265 -0.0070405547 0.0129100485 0.009880502 0.054336052 -0.03008854 -0.02746905 0.03824859 -0.061466288 0.038250145 -0.0527295 0.0038197206 -0.013945809 0.061499737 -0.028901674 0.053023003 -0.0057995054 0.04545595 0.020240385 0.013913935 -0.04689276 0.004988741 -0.047221784 -0.0096046 -0.053325728 0.042605165 -0.00069230056 -0.02439492 -0.023611227 0.06908672 0.022319136 0.01596467 -0.015167653 0.014851323 0.007641727 -0.013485538 0.016333198 0.025728635 -0.02499537 -0.012519193 0.047425788 -0.0170264 -0.0058402824 -0.07610429 0.051311713 -0.051160704 -0.026326133 -0.05186433 -0.021338312 0.016583215 0.021425204 0.041564755 0.0148994615 0.026670594 -0.03091553 0.010607008 0.008368846 0.006483078 -0.031895597 0.079454966 0.113105744 0.03395875 -0.029627668 0.04719835 -0.08427863 -0.067552604 0.04343234 -0.08924513 0.009945015 0.06424893 -0.16324612 -0.2410705 -0.6157722
R 0.0065184906 0.071836755 0.15312545 0.09062346 0.003464583 -0.022094505 0.12967637 0.03862529 -0.010596721 -0.054683857 -0.050416995 -0.23483723 0.04056703 0.081781216 -0.060691625 0.0883362 0.01622074 -0.034064267 -0.049735717 0.015760839 -0.00837182 0.0030426034 -0.04764 -0.019039035 -0.0027688118 -0.05769706 -0.04621715 0.041728333 -0.037623473 -0.030920243 0.019561926 0.043227404 -0.04285419 0.060315214 -0.018279713 -0.017086495 0.039242107 0.023126733 0.024091287 -0.009729494 0.017175173 0.009182269 -0.048733998 0.009275763 0.0108116865 -0.017353656 -0.0051576057 0.070972905 0.014915275 0.00069830864 0.04311892 -0.020982282 0.0016149156 0.008684374 -0.005078757 -0.0022238574 -0.044192616 -0.0015855645 0.022685543 0.027151663 0.0149798235 0.0025464825 0.012799985 0.008701062 0.0011849862 0.046341047 -0.0014694429 0.002233439 -0.024981909 0.051130824 0.061504837 0.016113546 -0.026689777 0.12876198 -0.06692713 -0.024332596 0.10148573 -0.1315009 -0.32476494 -0.64458805
D 0.03479011 0.0088468 0.016711188 0.1967311 -0.08445387 0.030298362 0.040936988 -0.05877453 -0.03383067 0.018476088 -0.0279484 -0.042935118 -0.0011616682 0.0009007653 0.03309758 -0.017834365 0.10379731 -0.15319759 -0.013483853 0.018631734 0.12535863 -0.040569097 -0.024769768 -0.07003262 0.073610954 -0.011418466 0.032735776 -0.030690785 0.013823614 -0.05865931 -0.0034879397 -0.0746994 -0.006822159 0.016109094 0.05457621 -0.041868012 -0.0047178227 0.035858646 0.015217353 -0.011305902 0.020914694 -0.040688336 -0.056685936 0.006597615 -0.026483811 0.033502717 0.015444387 0.063886136 0.014175142 0.020396248 -0.04604954 0.025570745 0.029533077 0.011108648 0.005124364 -0.001971547 -0.0950296 -0.048907433 -0.017178597 0.035158917 0.017405517 0.018917656 -0.013677105 0.0074669044 -0.049032763 -0.020073865 0.0707613 0.20741092 0.13451934 -0.03625034 0.113023385 -0.056195673 -0.040780943 0.03566077 -0.06415868 -0.06619718 0.14691791 -0.05259311 -0.27489677 -0.60356253
I 0.017776106 0.066807754 -0.025180044 0.1629771 -0.0186466 0.057634443 0.079135634 0.012992538 -0.008997746 0.04459517 -0.008141728 0.07450496 -0.052673675 -0.001984132 0.0509159 -0.09309069 0.025060764 -0.042028256 0.0012390543 -0.04114926 0.14468955 -0.032996517 -0.033773035 -0.041941326 0.0823627 0.0028395304 0.044029262 -0.043242913 -0.0018636024 -0.070452444 0.008913361 -0.08453975 0.033064157 0.023443598 -0.02186059 -0.07189717 0.057877883 0.034931548 0.012448808 0.010181707 0.008909922 -4.3024997e-05 0.06305252 0.009760722 0.024376346 -0.013184079 -0.0010609139 0.0017823403 0.034820333 0.008324175 -0.057851657 0.0096544605 -0.08175251 -0.008130073 -0.06567446 -0.027922098 -0.057197683 0.0035130046 0.034459747 0.04406725 0.0178308 -0.0011757948 0.021505227 0.013880899 0.0014692087 0.014038579 0.05096234 0.16612808 -0.0063322936 0.029897816 0.13295335 -0.047618985 -0.066113934 0.08720086 -0.036929727 -0.057200983 0.09512996 -0.07236388 -0.1554383 -0.6555538
Q 0.025706908 -0.120362565 0.23928864 -0.0035719282 -0.014137412 -0.07333644 0.060858324 0.024918323 0.014843276 0.0041588345 -0.0077344077 0.02671546 -0.049240347 0.02691036 0.024959536 -0.086593 -0.044910524 0.1899985 0.054540727 -0.08590599 0.014123728 0.027391693 -0.074810416 0.015398171 -0.0013820613 0.044499855 0.046226792 -0.01669209 -0.009774596 0.020984732 0.020535806 -0.018381668 -0.04809859 0.08502149 0.033081304 -0.029992586 -0.0030799138 0.024226435 0.030252146 -0.0070762383 0.008183426 -0.0203561 -0.07141515 -0.0024041503 -0.032610796 0.015608856 0.02508772 0.048408274 -0.062656984 0.021711176 0.06393562 0.0053089024 -0.014513884 -0.037227996 0.04130449 0.042933606 -0.07076306 -0.057203386 -0.04449111 0.005540822 0.015110628 0.0125914635 -0.031666983 -0.00027522742 0.013650705 0.02255064 -0.042407203 0.016215397 0.10051275 -0.063590676 0.100976095 -0.13766651 0.0041022864 -0.005703561 -0.06576245 -0.14611611 0.15559044 -0.02874562 -0.23728591 -0.6616696
N 0.027410869 0.06688472 0.028717456 0.14461422 -0.04416919 0.16890492 0.08363703 -0.06842116 -0.09195073 0.12693977 -0.019368831 0.1299903 -0.079092965 -0.06192238 0.07779322 -0.1318774 -0.022758339 -0.03283917 -0.019829605 -0.06548904 0.014888596 0.00015843501 0.009127785 0.016147971 0.01541604 0.033328373 -0.0029810518 -0.03855874 -0.0218735 -0.037215307 0.004821892 -0.017726686 0.0035500163 0.16048276 -0.111827 -0.12443455 0.07303618 0.03743617 0.011982005 0.00043816215 0.0022338943 -0.013998782 0.061908003 -0.00030951158 0.010512616 -0.007920922 0.014727816 -0.035147283 -0.019537646 0.021621818 -0.015617463 0.025021194 -0.08908765 -0.0451501 -0.054492418 -0.00352892 -0.085049875 0.011527578 0.04050221 0.054254662 0.011703217 0.004411422 0.036281303 0.01921776 -0.039961897 -0.0060498416 0.018776758 0.10954261 0.089401595 0.030127581 0.093935736 -0.08310163 -0.06368917 0.047039155 0.013945085 -0.07175972 0.10133749 -0.11302948 -0.3360333 -0.6061098
F -0.012350942 0.074677765 -0.09694965 0.09000951 -0.005290069 0.10830779 0.07520605 -0.012706159 -0.057664335 0.061838184 -0.016364027 0.028930688 -0.021033507 -0.024682827 0.017640725 -0.02966319 0.03408391 -0.05532958 -0.0034265318 -0.030012807 0.11758904 -0.024471512 -0.06917498 -0.06251503 0.068897076 -0.01769188 0.03191731 -0.01956478 -0.003198647 -0.06064085 0.011299262 -0.06260143 0.015855374 0.012963883 -0.0027535784 -0.070584945 0.019306377 0.026262248 0.0003680362 0.015688138 0.004312382 -0.009794973 0.07018482 0.0019106772 0.010511258 0.0051065693 0.004848334 -0.019196805 0.043114338 0.0077723754 -0.028878264 -0.0080911685 -0.02509491 0.018140094 -0.04594982 -0.03023786 -0.023000792 0.017455608 0.027507272 0.02538214 -0.005607367 0.0091702845 0.025847891 0.00771951 -0.022112904 0.051679544 0.027746558 0.1697873 -0.034153853 0.08089836 0.124845654 0.030284135 -0.038798172 0.07413947 0.0032922626 -0.028541036 0.10637796 0.0067036767 -0.14466646 -0.7046404
Y -0.093867525 0.09459138 -0.06725532 0.1254668 -0.059122633 0.15355264 0.11389996 -0.051010072 -0.11558079 0.12096179 -0.05933955 0.009780752 -0.04168633 -0.03782418 0.0830719 -0.0751429 -0.019179856 -0.04717623 -0.06773007 -0.014105334 0.09741521 -0.026094437 -0.04976792 -0.052629888 0.07622967 -0.014436632 -0.020910267 -0.042013943 -0.048187263 -0.12366908 0.015535786 -0.045417015 0.012572787 -0.05516727 -0.0006428754 0.016993312 0.021033717 -0.0035414258 -0.010523651 0.0032944106 0.019595245 0.010596528 0.023096973 -0.0017402449 0.027112242 -0.0040839617 -0.020295348 0.028787397 0.038955256 0.012686488 0.045317944 -0.0367075 0.023515617 0.031684928 -0.0072438093 -0.014840494 -0.046525393 -0.011837767 0.0036160343 0.02348193 0.0015202544 0.0154537475 0.0065484187 0.0046343976 -0.06236858 0.0030547732 0.04612268 0.15894733 -0.02555703 0.037785377 0.023675462 0.022307249 -0.04439943 0.028826278 0.011858837 -0.00059903716 0.079354115 -0.055842675 -0.18328619 -0.70446134
H -0.059010033 -0.05532449 0.003180061 -0.024173941 -0.027410114 0.09131003 0.054639883 -0.051557846 -0.09005669 0.057432562 -0.02401152 -0.026280105 -0.024123756 -0.037314337 0.0052260654 -0.031566385 -0.07550586 0.019667672 -0.06369923 -0.0131323235 0.102401674 -0.0004648647 -0.13934731 -0.05990567 0.024872463 -0.030750906 0.018820276 0.021445163 -0.011546543 -0.016378647 0.021874025 -0.010898689 -0.044838518 -0.039113406 0.03860332 0.05652795 -0.079296134 -0.004011845 0.022033185 0.031544294 -0.0020639345 -0.018308487 -0.038536556 -0.001890716 -0.038347606 0.031569384 0.020681426 0.024387332 0.056522116 0.019728757 0.05571053 -0.07709365 0.03224158 0.03220662 0.040329903 0.019396516 -0.050917327 -0.0063492004 -0.015684037 0.010797741 -0.030110221 0.040313352 0.015262538 0.0010198123 0.005404084 0.082796454 0.010829716 0.13273712 0.012231882 0.07714836 0.14532739 0.062310945 -0.14514774 0.06831554 -0.16149527 -0.11784696 0.065110885 -0.17377129 -0.28322718 -0.63811374
M -0.14724314 0.14298762 0.058788676 0.06589219 0.05944386 0.030299526 0.037983112 0.058328327 -0.037546597 0.05526728 0.004365043 0.06960052 -0.023435054 -0.031695526 -0.0079425415 -0.023215987 0.06538732 -0.062020715 0.03915755 -0.008024597 0.11550854 0.0042598355 -0.112724714 -0.043301962 0.04599474 0.019293455 0.027840054 -0.036450766 -0.011985892 -0.047988035 0.015165607 -0.04980059 -0.011479137 0.1373653 -0.0009949665 -0.1689429 0.044564337 0.03956646 0.022852195 -0.01691279 0.00042341187 0.022501638 -0.0070236837 0.01260877 0.018327078 -0.02630768 -0.007898454 0.030817932 0.015034323 -0.0020588196 -0.055042237 0.022084186 0.008614237 -0.009471418 0.023333274 0.017688865 -0.030975094 -0.021247901 -0.017326334 0.005008597 0.004255262 0.0058731027 -0.010084131 -0.00048068917 -0.01797691 0.0052339844 0.040262293 0.07486778 -0.04848695 0.03646109 0.08638802 -0.0013849213 -0.06817829 0.018209826 -0.08110289 -0.06391293 0.11920767 -0.07816254 -0.19375914 -0.66027975
C 0.040112074 -0.06597161 -0.14649177 -0.02129191 -0.08861919 0.13167372 0.04892829 -0.20651917 -0.17348391 0.032025192 -0.075095266 -0.2556696 0.04441152 -0.001348316 -0.058027945 0.09182147 0.0842 0.097234115 0.1866135 -0.06923083 0.14687927 -0.017940601 -0.100096636 -0.08701792 0.039903853 -0.019714795 0.17864853 0.036863983 0.121928126 0.12339555 -0.0037654643 -0.106865644 6.7204135e-05 -0.09496341 0.02209319 0.014591538 0.028185623 0.043009873 -0.009409246 -0.022234105 -0.0072429893 -0.0067317416 0.09378833 -0.0002528307 0.013551611 -0.0074308617 0.009500148 -0.05973176 0.027563198 0.03905456 0.12658378 -0.12824884 -0.024056787 0.038494185 -0.045933805 -0.028562384 0.0051659867 0.10197847 0.08111492 0.032296646 -0.051955245 0.02045559 0.096082486 0.016337212 -0.17719144 0.008643354 0.05049461 0.08992815 0.13767505 0.06943739 -0.06529269 0.1342597 -0.25074065 0.068966165 0.027622286 -0.07601644 -0.030662159 -0.030681703 -0.39367425 -0.63117903
W -0.011344326 0.1008563 -0.02173359 0.024465067 0.008251947 0.10170081 0.08680245 -0.0065965713 -0.04915297 0.016724456 -0.026359035 -0.088881224 0.042441577 0.005168186 -0.03324245 0.08281502 -0.005418708 0.010174699 0.015259461 -0.02347236 0.1004186 -0.015777772 -0.04427974 -0.034221858 0.07797993 0.012220187 0.020286765 -0.057104647 -0.022702236 -0.09422203 0.011416231 -0.07327996 0.0034820295 -0.04501895 0.010491344 -0.042053092 0.007768297 0.001588986 -0.02477417 0.0033672636 0.007294574 0.012620238 0.06651854 -0.004659208 0.028277077 -0.0037798225 -0.019098172 -0.016912011 0.008146778 0.015208627 0.05574419 -0.043709498 -0.051225133 0.012042222 -0.05570156 -0.034039624 -0.06081451 -0.00062667165 0.019251157 0.042110138 0.0043220106 0.009133679 0.02059855 0.009301746 -0.115525596 -0.01429612 0.07965656 0.20225456 -0.050139803 0.09166565 0.016648518 0.05716885 -0.008735635 0.03432032 0.06986944 0.017079057 0.10532625 0.056926448 -0.09218035 -0.7405341
X 0.23117399 -0.2372999 -0.63133925 -0.34563813 0.35859337 -0.66818446 -0.8041386 0.36957127 0.71993417 -0.45819178 0.4441288 0.723521 0.17162886 0.060870383 -0.24437912 0.22543381 0.051324084 0.15815578 0.31439 0.07470991 0.37624308 0.03721703 -0.34329703 -0.102236025 0.055307403 0.2057856 0.54492015 -0.054663036 0.32521495 0.37872678 -0.027876344 -0.32817662 -0.07114281 0.006460422 0.20593867 -0.26417434 -0.30617675 0.039781097 -0.11066995 0.03491223 -0.16459888 -0.18081172 0.39791045 -0.055423122 -0.19881077 0.20629808 0.15134732 -0.60279197 0.08851946 0.06788334 -0.043869548 -0.1796732 0.1405105 -0.015124549 0.15865724 0.08252121 -0.04669982 -0.10700975 -0.22649708 -0.07315987 -0.1394282 0.12107759 -0.06939326 -0.037655324 -0.028376142 -0.012543398 -0.014478224 0.29319122 0.15805961 0.21944232 0.108188264 0.10872471 -0.33475992 -0.12492909 -0.21248928 -0.18646954 0.3061446 -0.11815691 -0.4228713 -0.63295454
U 0.25846756 -0.11611076 -0.29303423 -0.22409773 0.10199787 -0.13150308 -0.20772412 0.005911264 0.16483004 -0.045916233 0.051755216 0.23738134 -0.003402123 0.11384135 0.003568557 -0.017647048 0.11119633 0.1653351 0.18737799 0.22542858 0.08903217 0.028509563 -0.2320352 -0.11395159 -0.07168944 -0.02840804 0.31834123 0.16020572 0.26678413 0.40254554 -0.03251762 -0.074790075 -0.03367029 0.014558334 0.26168582 -0.18183815 -0.18011071 0.0021984966 -0.10819437 0.0054993923 -0.073838964 -0.16643928 0.23671952 -0.09472195 -0.15650734 0.18014945 0.12671892 -0.41308138 -0.0040887073 -0.015332157 0.1535363 -0.114668876 -0.05566584 -0.10620535 -0.009386585 0.028052758 0.11919505 -0.019069755 -0.023285935 -0.06762833 0.041648325 -0.05701623 -0.063839726 -0.015187672 0.07996609 0.06613073 -0.30057192 -0.24688612 -0.16647784 0.06159314 0.107089095 -0.107164666 0.09377003 -0.112793125 0.040687785 -0.0059553375 -0.082204185 0.11372355 -0.11003312 -0.85620916
O -0.008389964 0.032588746 -0.018913092 0.029042216 0.007742604 0.007364989 0.0022835138 -0.009656872 -0.009332236 0.014601944 -0.011684631 -0.015427271 0.0014094645 0.0018706584 0.0155400755 0.0144315865 0.0017439703 -0.038071517 -0.03497352 0.03871404 -0.037623048 -0.017482044 0.11925978 0.012415958 0.033901915 0.0133145 -0.05616306 -0.025730629 -0.009717738 -0.06945543 -0.012181135 0.0009950746 0.016383672 -0.05734388 0.023667429 0.048081484 0.091200195 -0.031051835 -0.008841633 0.009149435 0.06120357 0.01905711 -0.017331157 -0.0008447102 0.06797967 -0.020538833 -0.04249002 0.121795006 -0.084415056 -0.01747797 0.12701868 -0.035114147 0.094922 0.05221511 0.04015292 -0.0061261393 0.2029418 0.099300094 0.035332408 -0.071862884 -0.03829943 -0.032973412 0.01422554 -0.023976773 -0.04992518 -0.03585512 0.06316943 0.13261408 -0.036965203 0.0005001287 0.06557059 -0.012390346 -0.06972415 0.022931006 -0.052669782 -0.03742344 0.07494201 -0.15867592 -0.18658765 -0.5329656
Z 0.028554736 -0.016952977 -0.04646751 -0.001551132 0.016599057 -0.021372346 -0.047938086 0.010900898 0.041117832 -0.011972357 0.0063482653 0.027903154 0.004345147 0.0002538888 0.0010596832 0.027591487 -0.0044362573 -0.024873309 -0.008320746 0.038898796 -0.0019917784 0.012535638 0.036296293 0.007066396 0.0070012743 0.027125306 0.005628475 -0.0030334298 0.0064085107 -0.0021316358 -0.006006506 -0.026146626 0.0026402613 -0.033508804 0.03205178 0.018004406 0.035951164 -0.0071448605 -0.025146572 0.0052868733 0.013423608 0.011877768 0.010473891 -0.002675968 0.03611664 -0.0018215361 -0.013121694 0.0375974 -0.05853814 -0.0131417 0.11408819 -0.03223238 0.05502933 0.03381627 0.023469392 0.0022831624 0.12276828 0.05451546 0.014967901 -0.048326813 -0.030365223 -0.0021793363 0.01877994 -0.0028673979 -0.06885078 -0.01386727 0.046778467 0.08076287 -0.007422196 -0.0005923391 0.03918884 -0.0097703915 -0.022053024 -0.0064744614 -0.027072202 -0.03656382 0.05229056 -0.09086818 -0.18409048 -0.46232083
B 0.0036148054 0.013089263 -0.021714456 -0.0002605556 -0.004259719 -0.0018123308 -0.01585485 -0.008359209 0.013828119 0.010218085 -0.0027903873 0.0015476517 0.006888925 0.0020051128 -0.010777558 0.016659437 -0.012338674 -0.0266265 -0.02239262 0.011203246 -0.0013706232 0.009660927 0.030012209 0.015663087 0.009215721 0.013529044 -0.013819013 -0.027974842 -0.001044467 -0.017247967 -0.017940657 -0.015531394 -0.012162388 -0.032663967 0.014350242 0.0291758 0.03534246 -0.0058374424 0.0035438258 0.0058728424 0.013265094 -0.0010644065 0.0032413867 -0.007529922 0.019237932 0.004633274 -0.021116203 0.023404287 -0.047434375 -0.005192115 0.061912984 -0.013083655 0.03972007 0.010028447 0.006338699 -0.00092086586 0.08689751 0.049657896 0.0077934787 -0.03649843 -0.031385068 -0.008652164 0.016549692 -0.0039366395 -0.02689604 -0.020385107 0.027164223 0.055576112 -0.009674426 -0.009241231 0.028628819 -0.015682802 -0.052064434 0.015967244 -0.039590463 -0.044444393 0.009393538 -0.042512678 -0.11878928 -0.3347883
