25 128
L -0.0295009 -0.05399944 -0.09721351 -0.05552664 0.0074323094 0.00031623337 0.005885636 0.05353139 -0.047919832 0.013798947 -0.022022435 -0.10926274 -0.024643434 0.03316401 -0.0043883873 -0.020782346 0.0068391715 0.030937457 -0.005307179 0.04566549 0.05585893 0.0045074215 -0.06020376 0.0333513 0.0037651595 0.11792461 -0.052515727 0.0748791 -0.022893008 -0.040380456 -0.062989295 -0.021731388 -0.04429819 0.03928035 0.024893884 0.07104981 -0.00046822082 -0.03212515 0.037093956 0.0038223988 -0.008471249 -0.039533764 0.032928515 -0.018156879 0.039302953 0.02828731 -0.0921864 0.009320474 -0.03950015 0.0034001546 -0.062322408 -0.0046151904 -0.025820306 0.021081371 -0.04525991 -0.012458714 0.030753426 0.007815259 -0.0068858997 0.0405349 0.0378345 -0.042319767 -0.026264373 -0.001778035 0.07310341 0.0053333025 0.09494458 0.00047325503 0.017331634 -0.011131347 0.01873384 0.010884838 -0.016168939 0.0011268468 -0.0232997 0.013881266 0.003947059 0.0046725296 -0.0020638597 0.018362245 -0.0135092605 -0.064169005 0.02885462 0.108652085 0.002590185 0.017328713 0.08726718 -0.0246226 -0.009847407 0.01649678 -0.03507575 0.009956001 -0.053699683 -0.02752852 0.020983182 0.028787341 -0.2149471 -0.11944195 0.04096587 -0.038948987 -0.1678861 0.1190481 0.07209783 0.052568175 0.058565605 0.02722315 0.056586146 -0.1075475 -0.061141916 -0.06882943 0.08153103 0.056361705 -0.049593218 -0.071644805 0.030206194 -0.11243418 -0.16092795 0.1780721 0.06998161 0.27772564 0.06774643 -0.1228132 -0.114059746 -0.09151415 -0.022684414 -0.092494875 -0.094095625 0.06473468
S 0.042735837 0.09048628 0.09474192 -0.1452239 -0.052628506 -0.0016566205 0.0070849555 -0.049555972 0.013622458 -0.04872372 -0.037393022 0.0039329426 -0.03744348 0.06930491 0.021079402 -0.042206865 0.0550498 0.01063731 -0.02882064 0.046774678 -0.017258158 -0.030309772 0.023053719 0.032938927 -0.014426511 0.036362693 -0.016106965 -0.0223268 0.03816967 0.011051248 -0.040153924 -0.027990801 -0.023255533 0.009737348 0.01920961 0.06863974 0.056766197 0.019995056 0.05801819 -0.020546718 -0.0071718255 -0.06397104 0.0025142601 -0.017295813 0.018438997 0.005048458 -0.089857236 0.028516343 -0.0012235051 0.0220155 -0.06224874 0.0049374467 0.02167281 0.035663124 0.019416187 0.026124055 0.02475736 -0.00027222125 -0.006810268 0.025393879 0.019265497 -0.03529548 -0.02775608 0.0034804207 0.004924318 0.03613441 -0.005162238 0.015730718 -0.026283104 0.040951718 -0.03863903 0.008562413 -0.020211859 -0.014550959 -0.014405768 -0.017656399 0.016658211 -0.0012047872 0.024859091 -0.03476244 -0.0018683523 -0.060030792 0.0072468673 0.09501276 -0.002906446 0.024465306 0.09214558 -0.018555421 0.023324402 0.020003747 -0.008847846 -0.0019396783 -0.09756305 -0.029235836 0.08000368 0.036015756 -0.3334575 -0.18632253 0.04768271 -0.055664625 -0.23889856 0.16034651 0.09972213 0.07331326 0.07660671 -0.010448551 0.035769895 -0.13899495 -0.07373283 -0.097300515 0.08141769 0.036768954 -0.030030217 -0.040792655 -0.0043408303 -0.05491313 -0.12255508 0.10174191 0.02229581 0.21157524 0.09290721 -0.17670286 -0.016761435 0.012603542 -0.05222896 -0.11868813 -0.09795626 0.025101602
A -0.014258949 -0.034375917 -0.07556419 0.13576931 0.059613634 0.057607 -0.0071130903 0.023967046 -0.03755102 -0.005153918 -0.06620105 -0.04946761 -0.0216912 0.05337675 0.0075842207 -0.030960573 -0.039181016 0.06805321 -0.13117345 0.030322887 0.09188998 0.047133937 -0.000645606 0.02197159 0.028517436 -0.08006182 -0.004641753 0.083453506 -0.091053635 -0.074050814 -0.08149747 0.04457803 -0.007286506 0.004317503 -0.005056665 -0.002504562 0.009792521 0.0027069384 0.013701053 0.007227845 -0.029178686 -0.069453955 -0.0068769255 0.008039287 0.016228018 0.021149116 -0.0058104345 0.017608767 -0.028038861 -0.016218271 -0.025536131 0.02101041 -0.03348069 -0.0065665017 -0.04592957 -0.008847943 0.02381022 -0.025943834 -0.012453648 0.015180773 0.017993871 -0.034548104 -0.03778577 0.020256517 0.013834065 -0.031478085 0.0826913 -0.0098498305 0.038357265 -0.015384843 0.03652451 0.010524793 0.029102251 -0.008009041 0.030722044 -0.017790597 -0.028785368 -0.025211167 -0.02362041 -0.10317854 -0.014286274 -0.08893323 0.011645328 0.14035128 0.014834859 0.002547804 0.12548913 -0.06018426 -0.020331774 0.02507716 -0.066669025 0.02059378 0.007608244 -0.016113188 -0.02456983 0.0056467806 -0.24309133 -0.13428882 0.04261735 -0.044601753 -0.1825378 0.13000561 0.07766301 0.053603064 0.09822812 0.0287908 0.06120756 -0.18331541 -0.12151752 -0.12661225 0.10023618 0.065438256 -0.051953822 -0.06637332 -0.0009406781 -0.08029166 -0.1658683 0.1427253 0.042180758 0.30795842 0.05878321 -0.08215293 -0.10529827 -0.022376003 -0.018447137 -0.06130862 -0.07261834 0.041939992
E -0.03366495 -0.06500218 -0.093315735 -0.08115124 -0.005268662 0.0014353258 0.026122922 0.014970742 -0.04608219 0.061128903 0.0073807742 -0.017333522 0.017199447 -0.040727574 0.032089468 -0.016161425 0.059484538 0.038086027 -0.031405464 0.053381577 -0.0074159657 -0.019813834 0.0086109135 0.040458564 0.011151829 -0.014613881 0.0086033195 0.03324142 -0.030137494 -0.0067917933 -0.0061199744 0.057631347 -0.050541837 0.04876292 0.025800489 0.0728211 -0.005961933 -0.029597117 0.040164214 0.0077728895 -0.0013306916 -0.07286834 0.01924095 -0.030143015 0.00536554 -0.00316282 -0.093421906 0.069463104 -0.05658798 0.016495042 -0.106498264 0.0016688027 -0.025638161 0.041174453 -0.06221854 -0.0058284686 0.053527962 -0.0065075876 -0.008092181 0.008396447 0.054994028 -0.08941129 -0.06321069 -0.0022320263 0.035551872 0.022285271 0.01965156 0.015711866 -0.0058606225 -0.0008524853 0.009977537 0.003733743 0.035648316 -0.036025688 0.0700539 -0.070159025 -0.038419016 -0.04102283 -0.0024012963 -0.14671566 -0.011306526 -0.10596679 0.017733397 0.17471305 -0.006725384 0.033192977 0.1490981 -0.035019584 0.013496356 0.031884346 -0.046236046 0.0041362303 -0.044624116 -0.012666915 0.038356606 0.008810804 -0.32438314 -0.16788016 0.03175634 -0.049087554 -0.23129201 0.12970604 0.07710004 0.07324546 -0.0059792115 -0.015369846 0.0051333965 0.0076752887 0.007083356 -0.011932258 0.016210066 0.01053148 -0.058364317 -0.10094833 0.041636247 -0.11372296 -0.13592806 0.14535843 0.07212366 0.25956953 0.105245754 -0.17500493 -0.117102444 -0.073326655 -0.0015062415 -0.15241799 -0.1308537 0.17718078
G -0.019645654 -0.034667417 -0.01804865 -0.010345769 -0.011344079 -0.04133169 -0.008892473 0.03698208 -0.00920944 0.016543383 0.0017308304 -0.009642741 0.028670125 -0.0030370092 -0.023449216 -0.008994189 -0.03485235 0.06490069 -0.0804788 0.029607395 0.07417736 0.042932298 -0.013496592 0.023420885 0.030584725 -0.05103654 -0.0051705507 0.08432517 -0.09347644 -0.041439746 0.044699106 0.089024834 -0.006591992 0.017338805 -0.015036962 -0.040253367 -0.028456293 -0.0018682594 -0.00946156 0.030583957 0.013877673 0.023618288 0.020924442 -0.010001069 -0.002510371 -0.00051131216 0.0014080481 0.009053698 -0.073738225 -0.020316588 -0.07701346 -0.0097869 -0.054535627 0.018264156 -0.088104665 -0.03740697 -0.012642995 0.0018161534 -0.0034298666 0.031399816 0.020666422 0.011243858 0.007373558 0.01034769 0.05112353 -0.047842473 0.12922634 -0.016545312 0.061114997 -0.04965573 0.07364694 0.009266266 -0.037483666 0.005354364 -0.064222604 0.04158413 0.014446354 0.014689127 0.0023703375 0.041067746 0.0020693592 -0.040061217 -0.0070361677 0.05194702 0.014090539 -0.00043872488 0.068824425 -0.034626063 -0.0027717447 0.035881452 -0.06750236 0.011846935 -0.060664345 -0.030091038 0.017347364 0.022346217 -0.27702588 -0.13038884 0.061860453 -0.06094246 -0.19281542 0.16615337 0.096902296 0.0058532744 0.098928496 0.072504126 0.06362094 -0.19325887 -0.1796944 -0.12483004 0.08959494 0.078219056 -0.024407847 -0.019210475 -0.03137846 -0.032563306 -0.14490718 0.097985536 0.009225313 0.23894653 0.055421736 -0.10006208 -0.02871609 0.013001031 -0.013556168 -0.101535596 -0.099786475 0.10377929
V -0.058659658 -0.09734826 -0.07378519 0.048494723 0.0004993957 -0.06514207 0.01312652 0.044916846 -0.014107476 0.02184273 -0.00097490026 -0.033627555 -0.008573776 0.021468524 0.0016554802 -0.034264404 -0.01854211 0.051168248 -0.009667272 0.03858677 0.058006447 0.026255263 -0.03846549 0.028690282 0.003897256 0.03632613 -0.016768292 0.033037342 -0.011853804 -0.013640287 -0.040382363 0.029367851 -0.03099283 0.036181577 -0.011614971 -0.013694272 -0.006325857 0.0051793116 0.02941483 0.034742426 -0.020342484 -0.039496265 0.030417763 -0.02761893 0.05104433 0.03541066 -0.10620619 0.003113232 -0.06819883 -0.014662217 -0.07275195 0.014035529 -0.05649507 0.009777976 -0.09505537 -0.025704006 0.07251936 -0.01843486 -0.010883812 -0.012191655 0.062754035 -0.098129176 -0.067972936 -0.0017854645 0.015442392 -0.030076044 0.0586047 -0.0054424107 0.03619826 -0.03296766 0.052835263 0.0033995656 -0.023919439 -0.024476815 -0.00063623925 -0.033856813 0.012949563 0.0029819496 0.026163973 0.009079405 -0.0040497743 -0.050434694 0.020630633 0.08269481 0.021448817 0.0071613896 0.079032585 -0.033442564 0.016105572 0.032864854 -0.066628024 0.013196974 0.0339725 0.016666252 -0.017460275 -0.016993202 -0.26751336 -0.13733347 0.026618395 -0.042599604 -0.1798912 0.108905695 0.064849116 0.04449967 0.06821696 0.05215534 0.056637496 -0.12135983 -0.084018126 -0.07557763 0.072528824 0.05651494 -0.04012702 -0.05349679 0.0028703476 -0.068394385 -0.13600574 0.12000739 0.040645506 0.24258178 0.09621415 -0.18434206 -0.059561085 -0.038832027 -0.024893193 -0.14705779 -0.12211788 0.11669667
K -0.07009072 -0.101607256 -0.053883057 -0.09085873 -0.05199977 -0.11500852 0.0589057 -0.0020231314 -0.0154451495 0.012147141 0.041342933 -0.05245572 -0.0053241253 -0.00079129054 -0.0023272033 -0.0046417387 0.01884203 -0.013429987 0.030783217 -0.042240366 -0.06710572 -0.0063487 0.019607801 -0.025113491 0.00040917084 0.09164367 0.050823465 0.002781437 0.012383489 0.0238859 0.0068118526 -0.011000369 0.0030751918 -0.0022643227 0.016774317 0.030568222 0.005783886 0.005750741 -0.0036740424 -0.01939026 0.02717125 -0.09773305 -0.036571596 -0.038610272 -0.032994147 -0.050429866 -0.08011025 0.038111523 -0.021060145 0.00027804804 -0.015042105 0.0046106493 -0.02315168 -0.0019407945 -0.0378904 -0.012414658 0.03846774 0.021701181 0.0064965137 -0.0042301663 0.026877655 -0.078898124 -0.041988276 -0.033770677 0.05896495 -0.00065215916 0.09777682 0.005751225 0.022560477 -0.010168205 0.032817986 0.013344807 -0.014310351 -0.028802296 -0.0037199194 -0.027958378 0.008320226 -0.011765708 0.029166652 -0.07862719 0.0018689036 -0.07720919 0.027365275 0.12657042 0.029464388 0.024274139 0.12995538 -0.040834535 0.0013462243 0.03731669 -0.08103815 0.020045323 0.008027448 -0.00048299032 -0.015907709 -0.008746602 -0.34783846 -0.17865428 0.029693555 -0.05367209 -0.22675394 0.13350289 0.081536815 0.05449819 -0.00376892 0.0205297 -0.0023017088 0.006019331 -0.009016333 0.014054075 -0.019511629 0.00017595889 -0.069098204 -0.114910364 0.022577148 -0.1016823 -0.15260045 0.1316545 0.059029214 0.31632408 0.1060241 -0.1711316 -0.12582786 0.0057537733 -0.08696236 -0.19433425 -0.2119903 0.084384836
P 0.00070540287 0.0016677988 0.06209156 0.07063652 0.0022792944 -0.07232103 -0.03294238 0.03412114 0.04902141 -0.0755568 -0.023141326 0.05659114 -0.014207943 0.1541839 0.04414648 -0.1806734 0.076352045 -0.031241974 0.00961981 0.017082212 -0.07177527 -0.056176938 0.06136176 0.0076541943 0.026184766 -0.079094544 0.09851037 0.0154046565 -0.0050524217 6.703288e-05 -0.021534998 -0.03004862 -0.050348382 0.051092975 0.03507437 0.08547978 -0.02833537 -0.049246624 0.023307806 0.0014750301 -0.009106029 0.07275291 0.06769612 -0.040362474 0.07684388 0.04824328 -0.14023118 -0.045917537 -0.012782295 0.011843321 0.006248457 0.0077545727 -0.019392928 -0.010045701 -0.04009863 -0.010970882 0.052181862 -0.011503553 -0.0018446711 -0.027628148 0.033737585 -0.08269475 -0.05404501 -0.013514173 0.016107269 0.037114576 -0.015617926 0.018303744 -0.026643759 0.025146322 -0.024769893 0.0033713314 0.0074475924 -0.031388514 0.02535647 -0.043569468 0.024543257 0.003652324 0.04963187 -0.034497697 0.025252532 -0.09093102 0.0014646471 0.1413969 0.014202762 0.057179287 0.16907753 -0.01794716 0.0970024 0.0745271 -0.062416814 -0.015232332 -0.048556637 0.010998574 0.05781927 -0.0040007723 -0.32627097 -0.12536938 -0.0047498406 -0.0452921 -0.1762856 0.06995135 0.033493258 0.002243875 0.10581323 0.04199014 0.04036391 -0.17189541 -0.09707073 -0.0828237 0.055767417 0.02441862 -0.052449897 -0.06452841 -0.009926076 -0.06264559 -0.14489149 0.111081965 0.028169367 0.29303166 0.0010529585 0.0044747046 0.041587513 0.04492075 0.01843383 -0.071514904 -0.05961034 0.1419216
T -0.02634983 -0.03382412 -0.01873474 -0.031785175 -0.01822556 -0.037902843 0.033450022 -0.018280657 0.019554524 -0.029125497 0.002150141 -0.011579362 -0.03810805 0.054410316 0.012725936 -0.040221334 0.004940766 0.011592225 -0.0048615914 0.0048298035 -0.011681582 0.0016899602 0.015650608 0.0043659275 -0.017937463 0.022757316 0.0073624225 -0.05027242 0.054940764 0.027008446 -0.03942576 -0.028227178 0.0014393809 -0.0044485927 -0.006504135 -0.004613271 0.032194182 0.03371129 0.022831762 -0.0032011648 -0.02741474 -0.07232037 -0.0061198855 -0.01972843 0.03928388 0.020812556 -0.10299214 0.001798249 -0.026310122 -0.001456224 -0.04362936 0.02278136 -0.021398865 0.006611461 -0.03922196 0.001964199 0.08186093 -0.016205147 -0.0091444 -0.019517647 0.047862586 -0.10919436 -0.07620637 -0.009351916 -0.0057816207 -0.0178249 0.032448158 -0.0029829221 0.018909069 -0.0052734334 0.020070886 0.005331317 -0.03199431 -0.016025865 -0.013907467 -0.024365766 0.024968885 0.011412548 0.03052771 0.028262062 -0.0004068347 -0.035753172 0.006319767 0.05559287 0.016706862 0.0028930926 0.059047237 -0.02829443 0.021900756 0.018056927 -0.018363426 0.0003952891 -0.0009502719 0.0046005542 0.021578725 -0.005475763 -0.26018998 -0.140005 0.025543341 -0.040894978 -0.18194635 0.107856594 0.063868046 0.059359528 0.07088262 0.026450582 0.04941576 -0.12857018 -0.08905801 -0.10039019 0.08982461 0.055727564 -0.044985052 -0.06384955 0.00048513652 -0.07245765 -0.14841874 0.12385511 0.037271667 0.26987058 0.115238905 -0.2191454 -0.05095856 -0.021334203 -0.043099135 -0.14061826 -0.10731876 0.057904333
R 0.014287793 0.0021564346 -0.0234978 -0.12385159 0.009582698 -0.014975995 -0.03970161 0.07921804 -0.041936766 0.086337894 -0.045961473 0.027902259 -0.0056762663 -0.026362225 0.039551567 -0.016124956 0.07991707 0.027241582 -0.043212708 0.06443131 -0.004051471 -0.036056723 -7.1857e-05 0.04720435 0.022096602 0.022688441 0.0005552395 0.07547076 -0.053821564 -0.0400612 0.0024510648 -0.012924695 -0.02846523 0.017668072 0.02416464 0.072094664 0.021087572 -0.017707806 0.036346562 -0.014239128 -0.029327326 0.05013453 0.07290673 -0.02795523 0.064685635 0.047966823 -0.099202126 -0.033795338 -0.0526439 0.014784135 -0.091548674 0.0043448177 -0.03970514 0.028383663 -0.06881818 -0.012782909 0.050870974 0.004214171 0.000587552 -0.010248277 0.011280137 -0.06490052 -0.03695668 -0.026902582 0.052963838 -0.034463406 0.1125566 -0.013216673 0.045917913 -0.036363862 0.05342725 0.008773461 0.039133932 0.021423627 0.0050825262 0.040528595 -0.04118801 -0.020870637 -0.048576962 -0.07590843 -0.00913652 -0.045717407 -0.02540927 0.062665634 -0.029977994 0.005704652 0.053327873 -0.015035186 -0.02352255 -0.0056989673 0.028510347 -0.010737938 -0.11178619 -0.057371255 0.056436475 0.04214376 -0.19418712 -0.09173777 0.05376247 -0.046710968 -0.15689112 0.1347393 0.07579141 0.021240463 0.011459861 0.024391973 0.013769312 -0.04140419 -0.10184005 -0.06481202 0.036019858 0.045866154 -0.0668094 -0.108622886 0.023147019 -0.1305755 -0.21922868 0.20030397 0.07356338 0.38484445 0.04369104 -0.057543002 -0.115747176 -0.04366006 -0.018873014 -0.104586504 -0.12679116 0.11583954
D -0.029752614 -0.050746202 -0.047038034 -0.10968769 -0.037196517 -0.032301717 0.026168307 0.002714687 -0.043460783 0.047717273 0.013831716 -0.04149129 0.03732686 -0.071312964 -0.023839748 0.053838313 0.041045524 0.032269757 0.009927651 0.062198494 0.02442951 -0.01562192 -0.03966443 0.045699414 -0.0018803653 0.051289663 -0.0342814 0.02294581 -0.013081999 0.004417028 0.027794287 0.055661812 -0.04134887 0.04565071 0.0071156155 0.025272088 -0.017629996 -0.020279959 0.027252028 0.026244631 0.016292937 -0.05129084 0.024026183 -0.026231576 -0.004250767 -0.008108732 -0.06938569 0.06914436 -0.057259187 0.016444502 -0.1364088 0.00969115 -0.01776725 0.05507503 -0.050352097 0.008358562 0.05391277 -0.010966579 -0.007041761 -0.019159699 0.043689147 -0.071926825 -0.048207056 -0.00594428 0.037594475 0.016956078 0.0276413 0.015059054 0.00037477448 -0.008597295 0.021126024 0.003546687 -0.020655027 -0.035237316 0.0139396135 -0.056026425 0.003932611 -0.008929374 0.028721804 -0.029167028 -0.015343718 -0.04473188 0.019903379 0.078426234 -0.008023725 0.010109055 0.05125796 -0.013885903 0.019597135 0.029557893 -0.05619583 0.010068174 -0.023186345 0.005094731 0.02601168 0.004107662 -0.3091663 -0.17676084 0.040510137 -0.04638177 -0.2197493 0.13722323 0.09029148 0.07299614 0.05497773 -0.007876996 0.038113542 -0.095768854 -0.037927393 -0.07137567 0.06924971 0.034701683 -0.03317416 -0.042243347 0.016077613 -0.078322195 -0.12423298 0.13303764 0.047661375 0.20649792 0.11234073 -0.21786217 -0.053997245 -0.055751983 -0.013581962 -0.17041951 -0.1338639 0.16393688
I -0.066762246 -0.10216557 -0.08132785 -0.090458676 -0.04304337 -0.08994454 0.037588444 0.03278721 -0.028413663 0.01610579 -0.0023332501 -0.07396161 0.0018879144 0.009054894 -0.036426015 0.018831266 -0.010825679 0.037086405 0.04449303 0.030014344 0.041651424 0.017495682 -0.06928445 0.024667462 -0.022396266 0.16840705 -0.045909625 -0.0032724785 0.028482076 0.008195903 -0.03531982 -0.014675711 -0.031738527 0.038041867 0.0022620496 0.009393369 -0.018128173 -0.012852467 0.018173337 0.026654739 0.012296877 -0.09004484 -0.0033060757 -0.03190485 0.0017633622 -0.009645789 -0.085578375 0.038764145 -0.051890794 0.045739673 -0.12090798 -0.028414624 -0.0022981341 0.06604343 -0.042976268 -0.0044522714 0.07746175 0.0108072655 -0.0070564807 0.02341315 0.07398821 -0.10133707 -0.058025118 -0.019530438 0.073777646 -0.008827666 0.108319774 0.00030157235 0.032785878 -0.031169767 0.049168944 0.00978825 -0.07230012 -0.027995063 -0.05378303 -0.022200733 0.059163608 0.028789107 0.066353254 0.06872237 -0.0023446127 -0.060998946 0.032744348 0.1037925 0.01489031 0.02648002 0.096538916 -0.019908298 0.007909274 0.011077996 -0.03505965 0.013574731 0.0130491955 0.014613687 0.0035292422 -0.0012935563 -0.20310514 -0.105636075 0.009042702 -0.027441751 -0.13420033 0.06527639 0.03835568 0.043604214 0.0837363 0.061816115 0.07318982 -0.14876305 -0.08971269 -0.07446692 0.0875426 0.06521245 -0.03865837 -0.04269641 -0.0019833134 -0.07496926 -0.16075996 0.14855826 0.04282461 0.27206498 0.08292969 -0.19166744 -0.012124927 -0.029034382 -0.06582651 -0.17123564 -0.15410182 0.07112186
Q -0.015757177 -0.07231512 -0.19967876 -0.06157555 0.08578739 0.12314429 0.016228952 0.037048995 -0.06562286 -0.031761196 0.010579722 -0.18289727 -0.015044705 0.047652554 -0.0012489643 -0.057037037 0.016327972 -0.05818893 0.06639032 -0.04463353 -0.051593192 -0.026844196 -0.008177565 -0.032274283 0.021883043 -0.033690646 0.012013446 0.06963455 -0.04040118 -0.025718976 -0.012348359 -0.024666265 -0.034733355 0.030849269 0.04630972 0.10526875 -0.017201861 -0.0553361 0.012939311 -0.020582722 0.004383218 0.014739986 0.005831712 0.011254721 0.00034424246 0.002672862 -0.009619089 0.020230502 -0.025569057 0.021317797 -0.025469404 -0.040283043 -0.010654789 0.020774346 -0.028265558 -0.02680096 0.017772956 0.020184215 -0.006673775 0.08813606 0.04945429 -0.0602692 -0.044648927 0.005472641 0.07733451 0.074590966 0.028298985 0.019153979 -0.048610225 0.05822896 -0.07827658 0.013830196 -0.01961538 0.004867419 -0.043820515 0.032063365 0.02233254 0.018018635 0.012362399 0.029335964 -0.00795676 -0.09723987 0.026866885 0.16318479 -0.010508375 0.044926204 0.13924631 -0.016821178 0.009860356 0.009625725 0.019112445 -0.013480198 -0.12004992 -0.043286752 0.09150107 0.047210775 -0.19548982 -0.08650565 0.01767007 -0.031148931 -0.16599953 0.07909784 0.0343509 0.0667546 -0.003221241 -0.011692606 0.03465396 -0.0003675939 0.020839736 -0.017321195 0.06900819 0.035930425 -0.07732473 -0.12835665 0.075676344 -0.17129725 -0.1679533 0.22242126 0.11122185 0.3217082 0.10587457 -0.18548201 -0.14279126 -0.15937142 0.027921408 -0.10038122 -0.05720761 0.13842219
N -0.030758817 -0.03534376 -0.0015786224 -0.10988906 -0.053679507 -0.07603668 0.03720606 -0.015925601 -0.07888309 -0.013464761 -0.18243119 -0.11171433 -0.033165388 -0.0073727234 -0.08633451 0.13627341 0.0025890574 -0.01578569 0.050802387 -0.026790796 -0.033058107 -0.0026710557 -0.01645504 -0.014803179 -0.017768536 0.10317355 -0.03120127 -0.0107685495 0.0007185377 0.016030952 0.020138763 0.026029604 -0.016720513 0.007899125 -0.0016862389 0.023975376 0.06515624 0.045880023 0.060972508 -0.002624793 0.0015785332 -0.06430083 0.0130574405 -0.03633667 0.017637927 0.0021136256 -0.10551135 0.02806416 -0.038091037 0.07126031 -0.13494436 -0.047282107 0.019128345 0.08656689 -0.013202485 0.0034743408 0.088821545 0.014127392 -0.0051509202 0.024480486 0.056136865 -0.11167778 -0.0675088 -0.027643802 0.084130436 0.02596445 0.12686287 0.014584317 0.009957597 0.019115506 0.0045814556 0.02422523 -0.10675801 -0.04580333 -0.09490006 -0.026878193 0.100359276 0.04463648 0.11249679 0.05641399 -0.007913976 -0.07539241 0.02122888 0.12531745 0.0049108155 0.022578957 0.10942676 -0.029407496 0.0071262936 0.013996688 -0.02662576 0.009496401 -0.027114835 -0.0015488312 0.044244085 0.012324777 -0.20222926 -0.11389723 0.0045197015 -0.022741541 -0.1437042 0.0571719 0.03446126 0.06985158 0.07903455 0.021154203 0.059389964 -0.14129964 -0.06343795 -0.07800313 0.09001441 0.04793469 -0.055758942 -0.07977589 0.008350967 -0.074020185 -0.12519643 0.10835246 0.04039855 0.26500174 0.11186739 -0.21433477 -0.036127623 0.00084654737 -0.06150104 -0.16377364 -0.13899313 0.06157234
F -0.051065303 -0.07311445 -0.037426814 -0.017109504 -0.03748519 -0.10331551 -0.0098904045 0.0799769 -0.020188922 0.06019416 -0.039279845 -0.019081447 -0.01930404 -0.019858683 -0.013173153 0.035021733 -0.021743018 0.030036055 0.06633154 0.046132144 0.071689375 0.016426776 -0.098995455 0.0329347 -0.0124862185 0.24728207 -0.07206171 0.058660835 0.021777576 -0.018361315 -0.06266325 -0.055622503 -0.048924953 0.06171965 0.004901239 0.009320741 -0.058165275 -0.044666417 0.008313607 0.045866348 0.0022154495 -0.05644292 0.023748374 -0.030060831 0.03023985 0.015005718 -0.10959222 0.01940963 -0.057020493 -0.00054635905 -0.093508 -0.0032911422 -0.031699173 0.03285042 -0.059517153 -0.013935702 0.021451555 -0.003531619 -0.007131464 0.016122267 0.036953673 -0.032364786 -0.02142304 0.0041942713 0.05281801 0.011089772 0.0668489 0.004985074 0.008186017 -0.002407814 0.010712444 0.009159638 -0.067114495 -0.0056879926 -0.08003469 0.024296783 0.058266286 0.034679234 0.049425527 0.088812515 -0.0034192519 -0.030502256 0.02570724 0.05203266 0.0037485512 0.019174732 0.047421575 -0.0032483048 0.0077563184 0.016189227 -0.034875285 0.012329152 -0.046153944 -0.011984555 0.030135764 0.027928028 -0.19993547 -0.10760529 0.022326171 -0.032214317 -0.14119413 0.08791761 0.05171073 0.043760963 0.09505456 0.046044607 0.074816614 -0.1703764 -0.09465431 -0.092694 0.10524992 0.068272755 -0.04199275 -0.040933263 0.0003294377 -0.087459125 -0.17730382 0.17534117 0.04841649 0.30004805 0.0660344 -0.14951833 -0.021740418 -0.024656676 -0.055938285 -0.121214636 -0.11232957 0.029067831
Y -0.04998695 -0.09018543 -0.05020946 -0.053015817 -0.028656606 -0.101806134 -0.008514577 0.07660721 -0.034173336 0.08061062 -0.0036353462 -0.016233709 0.022867594 -0.08541712 -0.027077124 0.07550177 0.0013907384 0.016215961 0.087286055 0.048482355 0.04889639 -0.003323465 -0.088480935 0.03294713 0.003338533 0.16837513 -0.02378651 0.060494676 0.0005609529 -0.0070015527 0.0036088806 -0.04779816 -0.007939782 0.0233792 0.002430582 -0.018156081 -0.068336 -0.04075454 -0.039913233 0.024613447 0.028794713 -0.023843987 0.009571464 -0.022419285 -0.013474218 -0.019362679 -0.054011714 0.042431444 -0.032166306 0.014735457 -0.10552037 0.022579154 -0.00741766 0.04061972 -0.024896566 0.02060076 0.05614944 -0.01638457 -0.0013306646 -0.065578215 0.018315122 -0.06682929 -0.04080595 -0.0193206 0.02078764 0.0038348495 0.03682558 0.008602208 0.0073988074 -0.0028565368 0.019169837 0.0061764005 -0.06281116 -0.016673712 -0.066086516 0.0025354372 0.06014774 0.031077946 0.061012045 0.06408717 -0.0031821255 -0.0052252803 0.00819034 0.0076989783 -0.0055013755 0.006541128 0.005161575 0.004755311 0.030996691 0.02408862 -0.040006984 0.007412651 -0.031194344 0.006560132 0.031232364 0.013441494 -0.21825427 -0.11843984 0.019065738 -0.0315298 -0.13882193 0.08281462 0.054325297 0.03547741 0.09923774 0.0148837725 0.057377867 -0.16926016 -0.07644365 -0.09790372 0.09150958 0.044313893 -0.04446806 -0.026491107 -0.013425423 -0.08784689 -0.20733401 0.20077844 0.044701487 0.35048804 0.06358087 -0.15993412 0.040339686 0.0044783247 -0.041692555 -0.15400493 -0.12793186 0.09850186
H -0.01197338 -0.06219933 -0.19052686 -0.15536748 0.051809654 0.12948504 0.038499944 -0.0012220945 -0.070112735 0.03769755 -0.012681892 -0.074761964 0.013275952 -0.07287526 0.030530734 0.038197484 0.054919355 -0.034183186 0.12582009 0.019794097 -0.030991105 -0.046041984 -0.067248054 0.01353271 -0.0025672675 0.15763278 0.016060641 0.020270858 0.026890658 0.0063353465 0.010655287 -0.0950511 0.008041952 -0.017583312 0.022418652 0.04840762 0.012362713 -0.016602129 -0.00881772 -0.03339512 0.031870943 0.0908148 0.08464043 -0.04702984 0.043506444 0.021806559 -0.10726098 -0.047842685 0.044334587 0.024234174 0.0046951114 0.006318011 0.03619307 0.00911381 0.064378254 0.03485009 0.037754897 0.03017391 0.015919846 -0.06263013 -0.030601125 -0.005590066 0.024472652 -0.057674535 0.11710426 0.002972652 0.12643002 0.0069871736 0.03081109 -0.047827154 0.06564726 0.007567441 0.007960242 -0.010988104 0.017223515 -0.013041047 -0.008676246 -0.0073288437 0.004757912 -0.0079970835 -0.0012158444 -0.036551535 0.0129069965 0.06519518 -0.0014851084 0.019307632 0.05433299 -0.004331741 0.04740424 0.0685883 -0.103154495 0.0076435115 -0.0636826 -0.00801966 0.017182738 0.014727061 -0.24759175 -0.13318485 0.031312145 -0.035031136 -0.14909624 0.09901485 0.07433292 0.017711751 0.12076838 0.045199145 0.062411427 -0.19016661 -0.072296776 -0.06867467 0.059842695 0.031385597 -0.057453055 -0.07829598 0.021073801 -0.107124746 -0.1647368 0.17035127 0.061044846 0.30918342 0.02487905 -0.042885557 -0.07238498 -0.07956124 -0.005853494 -0.095717005 -0.11169326 0.13205759
M -0.056368414 -0.12581608 -0.19343774 -0.022997241 0.04974465 0.031833068 0.012980734 0.0686661 -0.07628307 0.07691512 -0.1029256 -0.038206972 -0.015444622 -0.040182315 0.019677429 0.033824246 -0.014958066 0.036787476 0.043095477 0.050766997 0.056398157 0.013196246 -0.053022668 0.033683993 0.017714217 0.061512534 -0.008302892 0.09033242 -0.019607412 -0.042520553 -0.111966245 -0.04548078 -0.03226219 0.039974865 0.013496759 0.026908634 -0.03692036 -0.030757077 0.004187277 0.018322306 0.014946751 -0.0040967558 0.037503242 -0.038413458 0.021591138 0.0047043744 -0.10739897 0.020444678 -0.06418178 -0.0001348472 -0.1046816 0.00760556 -0.03803764 0.033085514 -0.073061496 -0.011916385 0.038148742 -0.009542834 -0.0116961375 0.032730516 0.058413196 -0.07632633 -0.058140874 0.010133831 0.009791435 0.002840206 0.017291665 0.0023100844 0.002592682 0.0013391349 0.003308808 0.0031613463 -0.008806811 -0.0021205877 -0.028058717 0.015615577 0.010675198 -0.0028664346 0.013089229 -0.052024346 -0.0068128244 -0.09183028 0.015476604 0.14508806 -0.0009982542 0.030256588 0.13619143 -0.03329901 -0.006109593 0.009634721 -0.023857389 0.011841087 -0.07065497 -0.027353838 0.04880249 0.034919713 -0.2114496 -0.11192225 0.024336204 -0.03497114 -0.16117917 0.095688455 0.052486792 0.05944672 0.07183004 0.011500441 0.054417916 -0.13870473 -0.08606616 -0.09086374 0.092893474 0.05755103 -0.04016785 -0.038223017 -0.018170545 -0.06395705 -0.17066345 0.1414759 0.02615979 0.30014244 0.06730369 -0.14944784 0.03816034 0.039561372 -0.057724968 -0.10318172 -0.08464996 -0.004142413
C -0.022926262 0.010725756 0.07456402 0.009010365 -0.08388177 -0.09127148 0.01700479 -0.015670696 0.012953295 0.16896603 0.003390668 0.15602471 -0.0050025634 -0.26846316 0.002982628 0.24435076 -0.111152634 -0.04230918 0.26812655 -0.1271213 -0.050133973 0.058316663 -0.105105706 -0.08046176 -0.038293794 0.20228858 -0.07140099 -0.042475566 0.05544561 0.034336004 0.02883431 0.0048628235 -0.040112626 0.046196662 -0.050639328 -0.07990996 0.017582003 0.047602553 0.06486916 0.073722966 -0.010208938 0.085065804 0.075457476 -0.05704496 0.08855898 0.056265756 -0.11893021 -0.12723371 -0.064896084 -0.03792945 0.014652013 -0.043701418 -0.07171499 -0.021598246 -0.097751275 -0.07919496 -0.016016506 0.032834068 0.0048562377 0.04296426 0.036950115 0.0296227 0.03850952 -0.0060870666 0.049671646 -0.048916396 0.073304385 -0.021257224 0.055593774 -0.080636136 0.0836813 -0.0075786524 -0.005205075 0.0031399578 0.011780117 -0.0016771056 -0.019621622 0.00131465 -0.01850002 0.083331965 0.0044079307 -0.05841122 0.023353823 0.09603503 0.019420227 0.025668323 0.099726245 -0.02196164 0.0032086829 0.029925594 -0.041639544 0.0029166648 -0.030351317 -0.022568349 0.007787972 0.008951653 -0.28523338 -0.11947466 0.033879634 -0.05498021 -0.20517278 0.13047366 0.062907204 0.032739326 0.020848526 0.15427272 0.07216352 -0.05256486 -0.15319878 -0.04609054 0.069665916 0.110492766 -0.040096216 -0.082247145 0.045343634 -0.121443294 -0.1564668 0.17304337 0.082237884 0.23582767 0.073202305 -0.1294641 -0.15269145 -0.20331164 0.065180935 -0.051983137 -0.021981958 0.16531537
W -0.0677927 -0.10664026 -0.03878827 0.06685247 -0.022418562 -0.14746013 -0.02805281 0.12015912 -0.07467495 0.11920939 -0.07078266 -0.06793676 -0.017311882 -0.085205756 -0.04282469 0.11126535 -0.0016647445 0.00989196 0.042244557 0.036313523 0.055984683 0.00044839617 -0.07957314 0.024401778 0.019567685 0.17592111 -0.06825277 0.13859792 -0.05449625 -0.057196386 -0.046134356 0.010618983 -0.05678448 0.060587727 -0.00025922677 0.019542085 -0.014952055 -0.016730681 0.046328664 0.041226108 -0.009277433 0.049490172 0.096362814 -0.0470951 0.0876299 0.0618246 -0.15546374 -0.037273135 -0.06428357 -0.05454868 -0.052854784 0.05636677 -0.08591952 -0.024440575 -0.10511307 -0.021961115 0.028724397 -0.023184815 -0.0043124557 -0.04074434 0.00912856 -0.046481814 -0.035373334 -0.003516248 0.050187822 0.018194554 0.067635104 0.011870461 0.0022678245 0.0099734245 0.005392514 0.012896353 -0.05038679 -0.008736909 -0.06263118 0.018584328 0.040461607 0.025459383 0.035835437 0.064052776 -0.018026333 0.01869079 0.017376618 -0.024007449 -0.005899759 -0.016983164 -0.047198642 0.0027576103 0.01022928 0.029839916 -0.06025915 0.011845379 -0.02371965 -0.003375572 0.0058182306 0.011580461 -0.22684011 -0.13486822 0.041120946 -0.03734003 -0.16447437 0.11808542 0.07973024 0.050496373 0.09988778 -0.0057192817 0.056837864 -0.17212996 -0.077476546 -0.1194874 0.1073277 0.050599866 -0.04643501 -0.03591943 0.0044686757 -0.09247475 -0.17206584 0.18508004 0.052606143 0.3039574 0.051136333 -0.0896877 -0.053529203 -0.0141533 -0.0103553645 -0.07801177 -0.07439712 0.07406359
X 0.37203124 0.5052397 -0.10882785 0.035406765 0.51948243 0.96363467 0.009412231 -0.3416874 -0.05608193 -0.3437883 -1.441167 0.09183083 -0.65753734 0.505019 0.13977014 -0.04599736 -0.17786475 -0.14192037 0.26916662 -0.1430865 -0.026794722 0.04545705 -0.0590904 -0.10425994 -0.0007017709 0.3602264 0.16674824 -0.065290324 0.25813437 0.2437904 0.56238765 -0.22841446 0.30057433 -0.27705902 -0.11897269 -0.3542598 0.17072707 0.37896344 -0.14166017 -0.10902311 -0.091473185 0.3504883 -0.06607597 -0.020433798 0.23578109 0.11058821 -0.28882468 -0.43104026 -0.093350366 -0.19748941 0.15490893 0.060880423 -0.21666768 -0.17441581 -0.21533056 -0.14245667 0.08556188 -0.09082714 0.034822483 -0.44257486 -0.18170692 0.03137814 0.0122840805 -0.04215804 -0.4529814 -0.24280667 -0.19636722 -0.10669118 0.0937007 0.017715825 -0.0018212587 -0.01821014 -0.14304331 0.20512125 -0.4776861 0.5429898 0.0940689 0.1662252 -0.088562466 0.5394608 0.09533441 -0.14404464 -0.10970994 0.11642162 0.16670267 -0.0069311643 0.3773446 -0.20629092 0.06410097 0.24274419 -0.23427472 -0.015124679 -0.4450326 -0.26652423 0.22733885 0.14095818 -0.50419414 -0.05712739 0.06633497 -0.15752496 -0.24944308 0.26938426 0.080338724 -0.22771712 -0.141375 0.3360565 -0.0766883 0.210639 -0.3321466 0.03731711 -0.1157088 0.07838913 -0.23073703 -0.6382649 0.15050782 -0.11157748 0.13409929 -0.33582908 0.08875362 0.24972816 0.19789329 -0.08784333 -0.63417083 0.058864694 -0.09403603 -0.2722474 -0.3984836 0.24679257
U 0.023588073 0.07391154 -0.0731775 -0.100523904 0.054681838 0.0562884 -0.008522 0.068500735 0.05376487 -0.25707808 -0.6424547 0.06412702 -0.19832508 0.19630471 0.0017285799 -0.048616346 -0.21069981 0.022903154 0.22884238 -0.027608482 0.18723081 0.11837798 -0.25410047 -0.011057892 0.029383993 0.26349288 0.043309674 0.08404033 0.073543176 0.12190904 0.55366254 -0.21912637 0.21035 -0.13845688 -0.04394037 -0.29087818 -0.2512203 -0.05848675 -0.37841707 -0.0030106953 -0.031869054 -0.13489783 -0.11943308 0.02707386 0.004432402 -0.0038312927 -0.038624197 -0.02125864 -0.029679293 0.09533866 -0.098879024 -0.16572301 0.07693938 0.12661603 0.04646223 -0.03210193 -0.082278475 0.031372566 0.02343639 -0.02448755 -0.03184972 0.18220563 0.13827458 0.0049700565 -0.08426962 -0.12117802 0.14031619 -0.065397836 0.0923376 0.012266701 0.00938524 0.026213001 -0.2728795 0.0125319045 -0.43118805 0.22575432 0.2412737 0.18653205 0.1239591 0.42698693 -0.014298236 0.051711295 -0.008105072 -0.12845668 0.02117917 -0.065055646 -0.07971596 -0.031925566 -0.108631365 0.011555178 -0.124890484 0.027928792 0.0883344 -0.039066445 -0.19728713 0.0034522219 -0.12655783 -0.027055474 0.10655482 -0.06320549 -0.097877696 0.18835807 0.10589575 -0.10261502 -0.038197633 0.18266438 0.058394134 0.056042314 -0.071574554 0.011922313 -0.00053958345 0.074632525 -0.17586231 -0.30295148 0.10068399 -0.21617992 -0.2006899 0.2007371 0.17169403 0.55105513 0.07266892 -0.18296786 -0.16911295 -0.20630428 -0.040756058 -0.2095639 -0.24472989 0.20737144
O 0.020924322 0.010941796 -0.0056158397 0.014274609 0.030226994 0.038642507 -0.0032584025 0.00047188095 0.007708629 -0.0021493263 0.011597381 0.009024495 -0.017523974 0.008365515 0.024997734 -0.005823289 -0.0041141687 0.0455277 -0.009421361 0.06436275 0.07131305 0.01502426 -0.042709347 0.040649425 -0.044847474 0.07459533 -0.049190726 -0.07832946 0.06976031 0.026615027 -0.031615607 -0.021713972 0.0035531947 -0.016978974 -0.013919394 0.02488919 0.094829835 0.052943315 0.06851143 -0.0262749 0.0108859 0.066610985 0.030463602 -0.0068742316 0.03230175 0.009657304 -0.03313582 -0.044677738 0.0816027 0.032814305 0.049484216 0.014961868 0.08580155 0.0035359552 0.11733899 0.05552919 0.027401777 0.002130862 0.0035017722 -0.027837934 0.002396927 -0.013529736 -0.013766887 -0.004728375 0.061247632 -0.024557885 0.09727339 -0.0017951141 0.03563087 -0.04524937 0.060436573 0.0071079587 -0.08640889 -0.025640177 -0.06382196 -0.0183741 0.057011608 0.04017757 0.05813088 0.1482292 -0.005727681 -0.090363115 0.026629856 0.14680792 0.015356476 0.021684228 0.13166362 -0.040341135 0.052719634 0.036797 -0.028069412 -0.004434582 -0.069809005 -0.007551235 0.078678556 0.0119974995 -0.26311296 -0.115612775 0.03229161 -0.052840825 -0.18353479 0.10452719 0.05495225 0.027817136 0.060846698 0.055643167 0.03981112 -0.114497595 -0.10152224 -0.060586218 0.077491224 0.06424448 -0.044129297 -0.06471405 0.02482135 -0.081637956 -0.120366454 0.12623638 0.07319298 0.20561558 0.0024438074 -0.04039402 -0.00958103 -0.07695515 -0.0024414586 -0.039975826 -0.032414053 0.06632269
Z 0.021578465 0.019373069 -0.013988153 0.013621353 0.031197954 0.050670873 -0.010160524 -0.0113860965 -0.0060269767 -0.030431226 -0.09656199 -0.0013147048 -0.02464439 0.034029033 0.0060187555 0.0067359484 -0.021618709 0.006754516 0.056769874 0.03219431 0.03408493 0.010250544 -0.04735513 0.017932605 -0.018434087 0.059918333 -0.029346693 -0.010044731 0.037985384 0.0075920275 0.005577353 -0.039085004 0.025328813 -0.03082452 -0.008514828 -0.0012522277 0.07335256 0.06568108 0.027470216 -0.023511916 -0.0026056818 0.08343665 0.02881685 -0.0070243054 0.036895897 0.02522021 -0.030043384 -0.036362562 0.04429476 0.029966516 0.035457626 0.016851574 0.0435369 -0.009550314 0.045211654 0.033260174 0.023934811 -0.0024108735 0.006215717 -0.03628853 -0.0035209365 -0.006037421 0.006579689 -0.0059691817 0.023212371 -0.013330436 0.046590514 -0.02270496 0.0266806 -0.025232496 0.011098049 -0.005541935 -0.06854606 -0.009096572 -0.076422125 0.022109488 0.06870042 0.0414119 0.043874785 0.15072969 0.00037731306 -0.057889752 -0.00057606434 0.08624853 0.0040585506 0.010579669 0.102816 -0.028896462 0.03388109 0.03515198 -0.041364744 -0.0114348065 -0.047411565 -0.015806304 0.028726688 0.02109505 -0.19462301 -0.07532889 0.029234862 -0.0356631 -0.13194251 0.081478775 0.05074844 -0.00622333 0.03495932 0.061898172 0.0338701 -0.05773911 -0.06602241 -0.028054519 0.03941769 0.044987302 -0.04510773 -0.08578732 0.021033606 -0.049874544 -0.05792194 0.048061933 0.05342 0.1583393 0.017736023 -0.044494297 -0.06689264 -0.045192823 -0.00734972 -0.06650544 -0.069654964 0.07046015
B 0.018464064 0.015377597 0.006755589 0.0028464985 0.010859629 0.039181165 -0.00555247 -0.012547482 -0.0047227438 -0.025437467 -0.06265438 0.005634644 -0.027136415 0.016771223 0.001431653 -0.0008948041 -0.0106565105 0.019512864 0.032728784 0.033341087 0.04172604 0.012347186 -0.029363979 0.025197702 -0.018923825 0.03656138 -0.03868166 -0.029418651 0.036340136 -0.00065053493 0.0034715352 -0.01892495 0.017448895 -0.03401558 -0.013659355 -0.005534882 0.08500552 0.058250982 0.039308507 -0.02707012 0.0053981626 0.06370819 0.02792297 -0.011792257 0.025845384 0.018059475 -0.011724627 -0.024951471 0.052165598 0.030921614 0.038504206 0.010456022 0.05484906 -0.0013118915 0.05732834 0.04684265 0.018388022 0.002171848 0.0036668463 -0.03076759 0.0018558936 -0.008261583 -0.0022428746 0.0012641591 0.023931285 -0.020086959 0.046933003 -0.017547673 0.025551613 -0.026611116 0.019909695 0.0022005115 -0.05420773 -0.003850597 -0.06836556 0.013925908 0.04986533 0.031254858 0.049281873 0.12979424 0.009011037 -0.056574915 -0.0014096575 0.0851288 0.0022451677 0.023722969 0.09019949 -0.021199973 0.032113563 0.033388387 -0.03522452 -0.0029228232 -0.033140596 -0.018325206 0.028543983 0.008760512 -0.1536402 -0.059140217 0.020882975 -0.02669339 -0.10790324 0.07469226 0.046425253 0.002779461 0.02917037 0.040014032 0.037768915 -0.04739131 -0.045692626 -0.03521272 0.039070755 0.030087067 -0.038563054 -0.049437154 0.013830838 -0.05062161 -0.051173534 0.060208138 0.04463203 0.1276293 0.005501424 -0.039774455 -0.037335403 -0.055715952 -0.012955277 -0.04581319 -0.055985067 0.049827408
